tree
version=v4
num_class=1
num_tree_per_iteration=1
label_index=0
max_feature_idx=1
objective=binary sigmoid:1
feature_names=file_size is_packed
feature_infos=[200:9998] [0:1]
tree_sizes=658 655 656 653 652 651 653 656 653 655 651 657 651 658 658 658 655 657 657 659 654 656 656 654 656 658 655 656 660 657 659 659 660 658 656 657 659 658 658 660 660 658 659 657 656 658 660 657 658 658 660 655 656 660 661 656 661 655 660 660 662 661 660 658 656 659 662 657 659 659 661 659 661 661 662 659 659 660 659 660 659 663 661 660 657 661 661 661 657 660 661 661 662 662 661 657 660 659 658 649

Tree=0
num_leaves=5
num_cat=0
split_feature=0 1 0 0
split_gain=644.53 60.5019 34.7997 1.48083
threshold=1996.5000000000002 1.0000000180025095e-35 1497.5000000000002 1871.5000000000002
decision_type=2 2 2 2
left_child=1 2 -1 -4
right_child=-2 -3 3 -5
leaf_value=0.081009435025984206 0.081009435025984275 -0.11901057029366628 -0.070857606050046679 -0.039002568165806051
leaf_weight=5.4994499087333706 88.241173535585403 87.74122354388237 13.498649775981905 4.9994999170303336
leaf_count=22 353 351 54 20
internal_value=-0.0200007 -0.0997693 -0.0294183 -0.0622481
internal_weight=0 111.739 23.9976 18.4981
internal_count=800 447 96 74
is_linear=0
shrinkage=1


Tree=1
num_leaves=5
num_cat=0
split_feature=0 1 0 0
split_gain=582.989 54.9288 31.4493 1.34034
threshold=1996.5000000000002 1.0000000180025095e-35 1497.5000000000002 1871.5000000000002
decision_type=2 2 2 2
left_child=1 2 -1 -4
right_child=-2 -3 3 -5
leaf_value=0.096109248625693477 0.096109248625693533 -0.094389922209361807 -0.048371118021775156 -0.018056983083193763
leaf_weight=5.4909864366054562 88.105373278260231 87.440020591020584 13.483069092035295 4.998098909854888
leaf_count=22 353 351 54 20
internal_value=0 -0.0760075 -0.00895652 -0.0401729
internal_weight=0 111.412 23.9722 18.4812
internal_count=800 447 96 74
is_linear=0
shrinkage=0.05


Tree=2
num_leaves=5
num_cat=0
split_feature=0 1 0 0
split_gain=529.711 50.2352 28.5206 1.21698
threshold=1996.5000000000002 1.0000000180025095e-35 1497.5000000000002 1871.5000000000002
decision_type=2 2 2 2
left_child=1 2 -1 -4
right_child=-2 -3 3 -5
leaf_value=0.091884020499184121 0.091884020499184177 -0.090391628132473756 -0.046060773821337997 -0.017161759358150962
leaf_weight=5.4570892751216915 87.561477914452553 86.758506283164024 13.452136248350145 4.9959325790405265
leaf_count=22 353 351 54 20
internal_value=0 -0.0727084 -0.00853102 -0.0382346
internal_weight=0 110.664 23.9052 18.4481
internal_count=800 447 96 74
is_linear=0
shrinkage=0.05


Tree=3
num_leaves=5
num_cat=0
split_feature=0 1 0 0
split_gain=483.18 46.2347 25.9428 1.10792
threshold=1996.5000000000002 1.0000000180025095e-35 1497.5000000000002 1871.5000000000002
decision_type=2 2 2 2
left_child=1 2 -1 -4
right_child=-2 -3 3 -5
leaf_value=0.088207063171464206 0.088207063171464262 -0.086900715186543645 -0.043904655609285789 -0.016313081453578137
leaf_weight=5.401689380407336 86.672561421990395 85.756133526563644 13.408211320638658 4.9931204319000235
leaf_count=22 353 351 54 20
internal_value=0 -0.0697882 -0.00813632 -0.0364178
internal_weight=0 109.559 23.803 18.4013
internal_count=800 447 96 74
is_linear=0
shrinkage=0.05


Tree=4
num_leaves=5
num_cat=0
split_feature=0 1 0 0
split_gain=442.232 42.7892 23.6601 1.0109
threshold=1996.5000000000002 1.0000000180025095e-35 1497.5000000000002 1871.5000000000002
decision_type=2 2 2 2
left_child=1 2 -1 -4
right_child=-2 -3 3 -5
leaf_value=0.084981284001366564 0.084981284001366619 -0.08382939794969782 -0.041885045371723127 -0.015508103621813303
leaf_weight=5.3282164633274105 85.493655070662498 84.48482358455658 13.35337355732918 4.9897682666778556
leaf_count=22 353 351 54 20
internal_value=0 -0.0671825 -0.00776845 -0.0347099
internal_weight=0 108.156 23.6714 18.3431
internal_count=800 447 96 74
is_linear=0
shrinkage=0.05


Tree=5
num_leaves=5
num_cat=0
split_feature=0 1 0 0
split_gain=405.957 39.7942 21.6285 0.924116
threshold=1996.5000000000002 1.0000000180025095e-35 1497.5000000000002 1871.5000000000002
decision_type=2 2 2 2
left_child=1 2 -1 -4
right_child=-2 -3 3 -5
leaf_value=0.0821313467678602 0.082131346767860255 -0.08110910962818467 -0.039987069071816254 -0.014744212226808157
leaf_weight=5.23966717720032 84.07284152507782 82.989938914775848 13.289452761411669 4.9859699606895438
leaf_count=22 353 351 54 20
internal_value=0 -0.0648403 -0.00742415 -0.0331002
internal_weight=0 106.505 23.5151 18.2754
internal_count=800 447 96 74
is_linear=0
shrinkage=0.05


Tree=6
num_leaves=5
num_cat=0
split_feature=0 1 0 0
split_gain=373.634 37.1696 19.8125 0.846114
threshold=1996.5000000000002 1.0000000180025095e-35 1497.5000000000002 1871.5000000000002
decision_type=2 2 2 2
left_child=1 2 -1 -4
right_child=-2 -3 3 -5
leaf_value=0.07959781662366712 0.079597816623667175 -0.078685495850387671 -0.038198165180126517 -0.014019006265310024
leaf_weight=5.138661831617358 82.452164843678474 81.311151400208473 13.218060672283174 4.9818074703216544
leaf_count=22 353 351 54 20
internal_value=0 -0.062721 -0.00710068 -0.0315797
internal_weight=0 104.65 23.3385 18.1999
internal_count=800 447 96 74
is_linear=0
shrinkage=0.05


Tree=7
num_leaves=5
num_cat=0
split_feature=0 1 0 0
split_gain=344.682 34.8527 18.1827 0.775699
threshold=1996.5000000000002 1.0000000180025095e-35 1497.5000000000002 1871.5000000000002
decision_type=2 2 2 2
left_child=1 2 -1 -4
right_child=-2 -3 3 -5
leaf_value=0.077333217352543226 0.077333217352543282 -0.076514878578149523 -0.036507658974953762 -0.013330283257665233
leaf_weight=5.0274909436702755 80.668377414345741 79.483137980103493 13.140610277652742 4.9773529171943656
leaf_count=22 353 351 54 20
internal_value=0 -0.0607914 -0.00679574 -0.0301404
internal_weight=0 102.629 23.1455 18.118
internal_count=800 447 96 74
is_linear=0
shrinkage=0.05


Tree=8
num_leaves=5
num_cat=0
split_feature=0 1 0 0
split_gain=318.63 32.794 16.7152 0.711891
threshold=1996.5000000000002 1.0000000180025095e-35 1497.5000000000002 1871.5000000000002
decision_type=2 2 2 2
left_child=1 2 -1 -4
right_child=-2 -3 3 -5
leaf_value=0.07529911966128966 0.075299119661289715 -0.074561771500919333 -0.034906434652289785 -0.012676002550955738
leaf_weight=4.9081552326679256 78.753581687808037 77.536176905035973 13.058342367410662 4.9726697802543631
leaf_count=22 353 351 54 20
internal_value=0 -0.0590245 -0.00650738 -0.0287756
internal_weight=0 100.475 22.9392 18.031
internal_count=800 447 96 74
is_linear=0
shrinkage=0.05


Tree=9
num_leaves=5
num_cat=0
split_feature=0 1 0 0
split_gain=295.091 30.9539 15.3898 0.653877
threshold=1996.5000000000002 1.0000000180025095e-35 1497.5000000000002 1871.5000000000002
decision_type=2 2 2 2
left_child=1 2 -1 -4
right_child=-2 -3 3 -5
leaf_value=0.073464074142393837 0.073464074142393893 -0.072797012373024397 -0.033386662968813222 -0.012054279700633774
leaf_weight=4.782402008771899 76.735814049839973 75.496696919202805 12.972341626882555 4.9678131937980643
leaf_count=22 353 351 54 20
internal_value=0 -0.057398 -0.00623398 -0.0274795
internal_weight=0 98.2193 22.7226 17.9402
internal_count=800 447 96 74
is_linear=0
shrinkage=0.05


Tree=10
num_leaves=5
num_cat=0
split_feature=0 1 0 0
split_gain=273.743 29.3 14.1895 0.60098
threshold=1996.5000000000002 1.0000000180025095e-35 1497.5000000000002 1871.5000000000002
decision_type=2 2 2 2
left_child=1 2 -1 -4
right_child=-2 -3 3 -5
leaf_value=0.071802101295275311 0.071802101295275367 -0.071196422155898817 -0.031941588270833939 -0.011463358654856629
leaf_weight=4.6517540216445949 74.639507710933685 73.387716606259346 12.883555948734285 4.962831735610961
leaf_count=22 353 351 54 20
internal_value=0 -0.055893 -0.0059741 -0.0262469
internal_weight=0 95.8859 22.4981 17.8464
internal_count=800 447 96 74
is_linear=0
shrinkage=0.05


Tree=11
num_leaves=5
num_cat=0
split_feature=0 1 0 0
split_gain=254.317 27.8062 13.0999 0.552628
threshold=1996.5000000000002 1.0000000180025095e-35 1497.5000000000002 1871.5000000000002
decision_type=2 2 2 2
left_child=1 2 -1 -4
right_child=-2 -3 3 -5
leaf_value=0.070291542894007006 0.070291542894007061 -0.06973978226914937 -0.030565364165953703 -0.010901603966647728
leaf_weight=4.5175360143184689 72.485918775200844 71.229241892695427 12.792810916900637 4.9577677249908438
leaf_count=22 353 351 54 20
internal_value=0 -0.0544939 -0.00572657 -0.0250732
internal_weight=0 93.4974 22.2681 17.7506
internal_count=800 447 96 74
is_linear=0
shrinkage=0.05


Tree=12
num_leaves=5
num_cat=0
split_feature=0 1 0 0
split_gain=236.588 26.4507 12.1086 0.508337
threshold=1996.5000000000002 1.0000000180025095e-35 1497.5000000000002 1871.5000000000002
decision_type=2 2 2 2
left_child=1 2 -1 -4
right_child=-2 -3 3 -5
leaf_value=0.06891419578920345 0.068914195789203506 -0.068410043631963 -0.029252884181478474 -0.010367492963655437
leaf_weight=4.3808983266353634 70.293504968285561 69.038632169365883 12.70082348585129 4.952656924724578
leaf_count=22 353 351 54 20
internal_value=0 -0.0531871 -0.00549034 -0.0239546
internal_weight=0 91.073 22.0344 17.6535
internal_count=800 447 96 74
is_linear=0
shrinkage=0.05


Tree=13
num_leaves=5
num_cat=0
split_feature=0 1 0 0
split_gain=220.361 25.2153 11.2049 0.467695
threshold=1996.5000000000002 1.0000000180025095e-35 1497.5000000000002 1871.5000000000002
decision_type=2 2 2 2
left_child=1 2 -1 -4
right_child=-2 -3 3 -5
leaf_value=0.067654639264869892 0.067654639264869948 -0.067192724343174012 -0.027999689477781965 -0.0098595863265225851
leaf_weight=4.2428372204303768 68.078251764178276 66.83089841902256 12.608215659856798 4.9475315213203421
leaf_count=22 353 351 54 20
internal_value=0 -0.0519614 -0.00526452 -0.0228875
internal_weight=0 88.6295 21.7986 17.5557
internal_count=800 447 96 74
is_linear=0
shrinkage=0.05


Tree=14
num_leaves=5
num_cat=0
split_feature=0 1 0 0
split_gain=205.473 24.0849 10.3797 0.430345
threshold=1996.5000000000002 1.0000000180025095e-35 1497.5000000000002 1871.5000000000002
decision_type=2 2 2 2
left_child=1 2 -1 -4
right_child=-2 -3 3 -5
leaf_value=0.06649972574781142 0.066499725747811475 -0.066075453927803132 -0.026801859438804389 -0.0093765491962344693
leaf_weight=4.1042115986347225 65.853940650820732 64.618975192308426 12.515521734952928 4.9424180388450614
leaf_count=22 353 351 54 20
internal_value=0 -0.0508067 -0.00504834 -0.0218687
internal_weight=0 86.1811 21.5622 17.4579
internal_count=800 447 96 74
is_linear=0
shrinkage=0.05


Tree=15
num_leaves=5
num_cat=0
split_feature=0 1 0 0
split_gain=191.781 23.0467 9.62485 0.395979
threshold=1996.5000000000002 1.0000000180025095e-35 1497.5000000000002 1871.5000000000002
decision_type=2 2 2 2
left_child=1 2 -1 -4
right_child=-2 -3 3 -5
leaf_value=0.065438188957794782 0.065438188957794838 -0.065047590603406508 -0.025655926984379348 -0.0089171263414874122
leaf_weight=3.965760380029681 63.632427915930748 62.413955971598625 12.423201978206636 4.9373403191566458
leaf_count=22 353 351 54 20
internal_value=0 -0.0497147 -0.00484113 -0.0208954
internal_weight=0 83.7403 21.3263 17.3605
internal_count=800 447 96 74
is_linear=0
shrinkage=0.05


Tree=16
num_leaves=5
num_cat=0
split_feature=0 1 0 0
split_gain=179.163 22.0897 8.93332 0.366739
threshold=1996.5000000000002 1.0000000180025095e-35 1497.5000000000002 1672.5000000000002
decision_type=2 2 2 2
left_child=1 2 -1 -4
right_child=-2 -3 3 -5
leaf_value=0.064460285629456826 0.064460285629456882 -0.06409993902566645 -0.0098998532807325814 -0.02524144949321365
leaf_weight=3.8281162679195431 61.42386557161808 60.225323304533958 5.9374598860740688 11.326504707336424
leaf_count=22 353 351 26 48
internal_value=0 -0.0486778 -0.00464231 -0.0199651
internal_weight=0 81.3174 21.0921 17.264
internal_count=800 447 96 74
is_linear=0
shrinkage=0.05


Tree=17
num_leaves=5
num_cat=0
split_feature=0 1 0 0
split_gain=167.499 21.2181 8.29675 0.384709
threshold=1996.5000000000002 1.0000000180025095e-35 1497.5000000000002 1871.5000000000002
decision_type=2 2 2 2
left_child=1 2 -1 -4
right_child=-2 -3 3 -5
leaf_value=0.063557582949667166 0.063557582949667221 -0.063224490807051684 -0.023795520210735513 -0.0072423338934484958
leaf_weight=3.6918165683746365 59.236874938011169 58.06112140417099 12.266022115945818 4.9170815944671622
leaf_count=22 353 351 54 20
internal_value=0 -0.0476807 -0.00444766 -0.0190587
internal_weight=0 78.936 20.8749 17.1831
internal_count=800 447 96 74
is_linear=0
shrinkage=0.05


Tree=18
num_leaves=5
num_cat=0
split_feature=0 1 0 0
split_gain=156.724 20.3961 7.71418 0.353489
threshold=1996.5000000000002 1.0000000180025095e-35 1497.5000000000002 1871.5000000000002
decision_type=2 2 2 2
left_child=1 2 -1 -4
right_child=-2 -3 3 -5
leaf_value=0.062722704757516359 0.062722704757516415 -0.062414262372104304 -0.022776217959855728 -0.0068868979964382335
leaf_weight=3.557316958904269 57.078767567873001 55.928139209747314 12.176540195941927 4.9124345183372489
leaf_count=22 353 351 54 20
internal_value=0 -0.0467357 -0.00426432 -0.0182086
internal_weight=0 76.5744 20.6463 17.089
internal_count=800 447 96 74
is_linear=0
shrinkage=0.05


Tree=19
num_leaves=5
num_cat=0
split_feature=0 1 0 0
split_gain=146.742 19.6309 7.17837 0.367704
threshold=1996.5000000000002 1.0000000180025095e-35 1497.5000000000002 1672.5000000000002
decision_type=2 2 2 2
left_child=1 2 -1 -4
right_child=-2 -3 3 -5
leaf_value=0.061949212194234306 0.061949212194234361 -0.061663123089050115 -0.0072244429287208443 -0.022712955665964069
leaf_weight=3.4249987006187466 54.955660969018936 53.832046374678612 5.8354080617427853 11.161105215549467
leaf_count=22 353 351 26 48
internal_value=0 -0.0458286 -0.00408801 -0.0173953
internal_weight=0 74.2536 20.4215 16.9965
internal_count=800 447 96 74
is_linear=0
shrinkage=0.05


Tree=20
num_leaves=5
num_cat=0
split_feature=0 1 0 0
split_gain=137.468 18.9285 6.6834 0.343453
threshold=1996.5000000000002 1.0000000180025095e-35 1497.5000000000002 1871.5000000000002
decision_type=2 2 2 2
left_child=1 2 -1 -4
right_child=-2 -3 3 -5
leaf_value=0.061231429988967891 0.06123142998896796 -0.060965662981639517 -0.021145259660174508 -0.0054323089411331118
leaf_weight=3.295178800821307 52.872641667723656 51.777534484863281 12.028146564960482 4.8921778798103324
leaf_count=22 353 351 54 20
internal_value=0 -0.044946 -0.00391509 -0.0166022
internal_weight=0 71.993 20.2155 16.9203
internal_count=800 447 96 74
is_linear=0
shrinkage=0.05


Tree=21
num_leaves=5
num_cat=0
split_feature=0 1 0 0
split_gain=128.864 18.259 6.22878 0.351672
threshold=1996.5000000000002 1.0000000180025095e-35 1497.5000000000002 1672.5000000000002
decision_type=2 2 2 2
left_child=1 2 -1 -4
right_child=-2 -3 3 -5
leaf_value=0.060564346110537209 0.060564346110537286 -0.060317098831335715 -0.0058664821051114136 -0.021085820381387503
leaf_weight=3.1681172251701382 50.833880931138992 49.768432125449181 5.7816707193851498 11.049869298934935
leaf_count=22 353 351 26 48
internal_value=0 -0.0441022 -0.003752 -0.0158579
internal_weight=0 69.7681 19.9997 16.8315
internal_count=800 447 96 74
is_linear=0
shrinkage=0.05


Tree=22
num_leaves=5
num_cat=0
split_feature=0 1 0 0
split_gain=120.849 17.6411 5.80798 0.33288
threshold=1996.5000000000002 1.0000000180025095e-35 1497.5000000000002 1871.5000000000002
decision_type=2 2 2 2
left_child=1 2 -1 -4
right_child=-2 -3 3 -5
leaf_value=0.059943511939365195 0.059943511939365257 -0.059713201657583682 -0.019643939286470763 -0.0041257984676076852
leaf_weight=3.0440247654914883 48.842761009931564 47.807804256677628 11.886593878269197 4.8723268508911124
leaf_count=22 353 351 54 20
internal_value=0 -0.0432755 -0.003592 -0.0151323
internal_weight=0 67.6107 19.8029 16.7589
internal_count=800 447 96 74
is_linear=0
shrinkage=0.05


Tree=23
num_leaves=5
num_cat=0
split_feature=0 1 0 0
split_gain=113.395 17.0488 5.42064 0.336571
threshold=1996.5000000000002 1.0000000180025095e-35 1497.5000000000002 1672.5000000000002
decision_type=2 2 2 2
left_child=1 2 -1 -4
right_child=-2 -3 3 -5
leaf_value=0.059364974031947099 0.059364974031947175 -0.05915017701749116 -0.0046362280776564577 -0.019592533370748989
leaf_weight=2.9230673015117672 46.901943519711494 45.89806205034256 5.7320192158222225 10.9422749876976
leaf_count=22 353 351 26 48
internal_value=0 -0.042481 -0.00344097 -0.0144511
internal_weight=0 65.4954 19.5974 16.6743
internal_count=800 447 96 74
is_linear=0
shrinkage=0.05


Tree=24
num_leaves=5
num_cat=0
split_feature=0 1 0 0
split_gain=106.436 16.4995 5.06149 0.321919
threshold=1996.5000000000002 1.0000000180025095e-35 1497.5000000000002 1871.5000000000002
decision_type=2 2 2 2
left_child=1 2 -1 -4
right_child=-2 -3 3 -5
leaf_value=0.05882520492507283 0.058825204925072906 -0.058624632482747456 -0.018260829488866589 -0.0029537540695304888
leaf_weight=2.8053730130195644 45.013485163450241 44.041036114096642 11.752400159835817 4.8532310128211966
leaf_count=22 353 351 54 20
internal_value=0 -0.0416977 -0.00329283 -0.0137871
internal_weight=0 63.452 19.411 16.6056
internal_count=800 447 96 74
is_linear=0
shrinkage=0.05


Tree=25
num_leaves=5
num_cat=0
split_feature=0 1 0 0
split_gain=99.9505 15.9699 4.73024 0.322237
threshold=1996.5000000000002 1.0000000180025095e-35 1497.5000000000002 1672.5000000000002
decision_type=2 2 2 2
left_child=1 2 -1 -4
right_child=-2 -3 3 -5
leaf_value=0.058321033444085048 0.058321033444085124 -0.05813355637472787 -0.0035239421474827907 -0.018220623714410508
leaf_weight=2.6910366415977505 43.178906112909317 42.238034024834633 5.6864272058010128 10.839014291763304
leaf_count=22 353 351 26 48
internal_value=0 -0.0409414 -0.00315293 -0.0131635
internal_weight=0 61.4545 19.2165 16.5254
internal_count=800 447 96 74
is_linear=0
shrinkage=0.05


Tree=26
num_leaves=5
num_cat=0
split_feature=0 1 0 0
split_gain=93.8841 15.4764 4.4226 0.310705
threshold=1996.5000000000002 1.0000000180025095e-35 1497.5000000000002 1871.5000000000002
decision_type=2 2 2 2
left_child=1 2 -1 -4
right_child=-2 -3 3 -5
leaf_value=0.057849623196537442 0.057849623196537518 -0.057674202010422532 -0.016985967934933462 -0.001904090647889883
leaf_weight=2.580123424530032 41.399253129959106 40.489942319691181 11.625816762447359 4.8351308703422538
leaf_count=22 353 351 54 20
internal_value=0 -0.0401916 -0.00301575 -0.0125559
internal_weight=0 59.531 19.0411 16.4609
internal_count=800 447 96 74
is_linear=0
shrinkage=0.05


Tree=27
num_leaves=5
num_cat=0
split_feature=0 1 0 0
split_gain=88.2216 14.9984 4.13832 0.308552
threshold=1996.5000000000002 1.0000000180025095e-35 1497.5000000000002 1672.5000000000002
decision_type=2 2 2 2
left_child=1 2 -1 -4
right_child=-2 -3 3 -5
leaf_value=0.057408414642626499 0.057408414642626575 -0.057244117745788262 -0.0025206406453067778 -0.0169592287251677
leaf_weight=2.4726731926202801 39.675165317952633 38.797255262732506 5.6447970569133785 10.740527868270872
leaf_count=22 353 351 26 48
internal_value=0 -0.0394646 -0.00288617 -0.0119851
internal_weight=0 57.6553 18.858 16.3853
internal_count=800 447 96 74
is_linear=0
shrinkage=0.05


Tree=28
num_leaves=5
num_cat=0
split_feature=0 1 0 0
split_gain=82.9159 14.5507 3.87392 0.299352
threshold=1996.5000000000002 1.0000000180025095e-35 1497.5000000000002 1871.5000000000002
decision_type=2 2 2 2
left_child=1 2 -1 -4
right_child=-2 -3 3 -5
leaf_value=0.056995084424923993 0.056995084424924083 -0.056841083044132115 -0.015810525103963958 -0.00096595433911289574
leaf_weight=2.3687043040990856 38.006937243044376 37.160134993493557 11.506895720958711 4.8181834816932669
leaf_count=22 353 351 54 20
internal_value=0 -0.0387404 -0.00275919 -0.0114293
internal_weight=0 55.8539 18.6938 16.3251
internal_count=800 447 96 74
is_linear=0
shrinkage=0.05


Tree=29
num_leaves=5
num_cat=0
split_feature=0 1 0 0
split_gain=77.9564 14.1152 3.62916 0.295433
threshold=1996.5000000000002 1.0000000180025095e-35 1497.5000000000002 1672.5000000000002
decision_type=2 2 2 2
left_child=1 2 -1 -4
right_child=-2 -3 3 -5
leaf_value=0.056607546844754719 0.056607546844754809 -0.056463075709698031 -0.0016179907040978711 -0.015798794312114148
leaf_weight=2.2682154476642635 36.394547864794731 35.578461214900017 5.6069799959659603 10.647057712078093
leaf_count=22 353 351 26 48
internal_value=0 -0.0380356 -0.00263924 -0.010907
internal_weight=0 54.1007 18.5223 16.254
internal_count=800 447 96 74
is_linear=0
shrinkage=0.05


Tree=30
num_leaves=5
num_cat=0
split_feature=0 1 0 0
split_gain=73.3031 13.7055 2.40275 0.508067
threshold=1996.5000000000002 1.0000000180025095e-35 1564.5000000000002 1871.5000000000002
decision_type=2 2 2 2
left_child=1 2 -1 -4
right_child=-2 -3 3 -5
leaf_value=0.02806594408505449 0.056243900520360594 -0.056108260029215921 -0.020345004245396189 -0.00012949373133972695
leaf_weight=4.7574738413095501 34.837726287543774 34.051873035728931 8.8092568218708021 4.8024797439575186
leaf_count=34 353 351 42 20
internal_value=0 -0.0373307 -0.00252179 -0.0132126
internal_weight=0 52.4211 18.3692 13.6117
internal_count=800 447 96 62
is_linear=0
shrinkage=0.05


Tree=31
num_leaves=5
num_cat=0
split_feature=0 1 0 0
split_gain=68.916 13.3378 2.17931 0.465028
threshold=1996.5000000000002 1.0000000180025095e-35 1564.5000000000002 1871.5000000000002
decision_type=2 2 2 2
left_child=1 2 -1 -4
right_child=-2 -3 3 -5
leaf_value=0.026780526961783582 0.055902409078777131 -0.055774974956012482 -0.019491700840337179 -0.00012302195713376302
leaf_weight=4.7370680868625668 33.335975430905819 32.579795122146606 8.7370422184467298 4.8023563623428336
leaf_count=34 353 351 42 20
internal_value=0 -0.0365966 -0.00240908 -0.0126217
internal_weight=0 50.8563 18.2765 13.5394
internal_count=800 447 96 62
is_linear=0
shrinkage=0.05


Tree=32
num_leaves=5
num_cat=0
split_feature=0 1 0 0
split_gain=64.8029 12.9821 1.97629 0.425495
threshold=1996.5000000000002 1.0000000180025095e-35 1564.5000000000002 1871.5000000000002
decision_type=2 2 2 2
left_child=1 2 -1 -4
right_child=-2 -3 3 -5
leaf_value=0.025548889938270054 0.055581507190575002 -0.055461689483553511 -0.018670662008144556 -0.00011687738567309346
leaf_weight=4.7176654338836697 31.888603590428829 31.161482155323029 8.6670128703117353 4.8022386431694022
leaf_count=34 353 351 42 20
internal_value=0 -0.0358698 -0.00230105 -0.0120556
internal_weight=0 49.3484 18.1869 13.4693
internal_count=800 447 96 62
is_linear=0
shrinkage=0.05


Tree=33
num_leaves=5
num_cat=0
split_feature=0 1 0 0
split_gain=60.945 12.6374 1.79188 0.38919
threshold=1996.5000000000002 1.0000000180025095e-35 1564.5000000000002 1871.5000000000002
decision_type=2 2 2 2
left_child=1 2 -1 -4
right_child=-2 -3 3 -5
leaf_value=0.024369356568087707 0.055279740068072319 -0.055167024352601915 -0.017880685081108749 -0.00011103398349124154
leaf_weight=4.6991950422525433 30.494771778583527 29.796037137508392 8.5991958975791913 4.8021271824836722
leaf_count=34 353 351 42 20
internal_value=0 -0.0351494 -0.00219753 -0.0115132
internal_weight=0 47.8966 18.1005 13.4013
internal_count=800 447 96 62
is_linear=0
shrinkage=0.05


Tree=34
num_leaves=5
num_cat=0
split_feature=0 1 0 0
split_gain=57.325 12.3027 1.6244 0.355857
threshold=1996.5000000000002 1.0000000180025095e-35 1564.5000000000002 1871.5000000000002
decision_type=2 2 2 2
left_child=1 2 -1 -4
right_child=-2 -3 3 -5
leaf_value=0.02324022352627874 0.054995796476762809 -0.054889697811291153 -0.017120645910435151 -0.00010548436660319995
leaf_weight=4.6815930753946331 29.153498984873295 28.482442773878574 8.5336046516895276 4.802021086215972
leaf_count=34 353 351 42 20
internal_value=0 -0.0344346 -0.00209833 -0.0109937
internal_weight=0 46.4997 18.0172 13.3356
internal_count=800 447 96 62
is_linear=0
shrinkage=0.05


Tree=35
num_leaves=5
num_cat=0
split_feature=0 1 0 0
split_gain=53.9308 11.4908 1.56463 0.196898
threshold=1979.5000000000002 1.0000000180025095e-35 1564.5000000000002 1833.0000000000002
decision_type=2 2 2 2
left_child=1 2 -1 -4
right_child=-2 -3 3 -5
leaf_value=0.022159765716672483 0.053855578245160476 -0.054628532493012617 -0.0060960281640842617 -0.018574161792185958
leaf_weight=4.6648036986589458 28.421437077224255 27.142036333680153 7.0799118131399137 5.712055429816246
leaf_count=34 356 350 35 25
internal_value=0 -0.0342748 -0.00262849 -0.0116679
internal_weight=0 44.5988 17.4568 12.792
internal_count=800 444 94 60
is_linear=0
shrinkage=0.05


Tree=36
num_leaves=5
num_cat=0
split_feature=0 1 0 0
split_gain=50.7841 11.6509 1.33869 0.333016
threshold=1996.5000000000002 1.0000000180025095e-35 1564.5000000000002 1871.5000000000002
decision_type=2 2 2 2
left_child=1 2 -1 -4
right_child=-2 -3 3 -5
leaf_value=0.021126266054577399 0.054480550254426247 -0.054384030650419059 -0.016041200516756626 0.00046450373617721934
leaf_weight=4.6487765014171627 26.643616504967213 26.013246580958366 8.4396442025899869 4.7904522120952597
leaf_count=34 353 351 42 20
internal_value=0 -0.0330276 -0.00195457 -0.0100647
internal_weight=0 43.8921 17.8789 13.2301
internal_count=800 447 96 62
is_linear=0
shrinkage=0.05


Tree=37
num_leaves=5
num_cat=0
split_feature=0 1 0 0
split_gain=47.7837 11.3424 1.21302 0.304087
threshold=1996.5000000000002 1.0000000180025095e-35 1564.5000000000002 1871.5000000000002
decision_type=2 2 2 2
left_child=1 2 -1 -4
right_child=-2 -3 3 -5
leaf_value=0.020138011096777698 0.054242981485632003 -0.054151980515465596 -0.015351241568423414 0.00044123348057082231
leaf_weight=4.6334663480520275 25.45238571614027 24.847917921841145 8.3795803487300855 4.7909069061279288
leaf_count=34 353 351 42 20
internal_value=0 -0.0323263 -0.00186556 -0.00960656
internal_weight=0 42.6519 17.804 13.1705
internal_count=800 447 96 62
is_linear=0
shrinkage=0.05


Tree=38
num_leaves=5
num_cat=0
split_feature=0 1 0 0
split_gain=44.9648 11.0412 1.09898 0.277573
threshold=1996.5000000000002 1.0000000180025095e-35 1564.5000000000002 1871.5000000000002
decision_type=2 2 2 2
left_child=1 2 -1 -4
right_child=-2 -3 3 -5
leaf_value=0.019193319262093066 0.054018958006410225 -0.053933117380028199 -0.014687779698922468 0.00041913594280786271
leaf_weight=4.6188327968120602 24.308924615383148 23.729560635983944 8.3217006027698499 4.7913381755352011
leaf_count=34 353 351 42 20
internal_value=0 -0.0316289 -0.00178032 -0.0091679
internal_weight=0 41.4614 17.7319 13.113
internal_count=800 447 96 62
is_linear=0
shrinkage=0.05


Tree=39
num_leaves=5
num_cat=0
split_feature=0 1 0 0
split_gain=42.3156 10.7466 0.995527 0.25328
threshold=1996.5000000000002 1.0000000180025095e-35 1564.5000000000002 1871.5000000000002
decision_type=2 2 2 2
left_child=1 2 -1 -4
right_child=-2 -3 3 -5
leaf_value=0.018290515879085503 0.053807615298580982 -0.053726618506877336 -0.014049931607134121 0.00039814441667253585
leaf_weight=4.6048398762941387 23.211889244616032 22.656820677220821 8.2659741938114148 4.7917476892471305
leaf_count=34 353 351 42 20
internal_value=0 -0.0309349 -0.00169872 -0.00874797
internal_weight=0 40.3194 17.6626 13.0577
internal_count=800 447 96 62
is_linear=0
shrinkage=0.05


Tree=40
num_leaves=5
num_cat=0
split_feature=0 1 0 0
split_gain=39.8253 10.4583 0.901686 0.231031
threshold=1996.5000000000002 1.0000000180025095e-35 1564.5000000000002 1871.5000000000002
decision_type=2 2 2 2
left_child=1 2 -1 -4
right_child=-2 -3 3 -5
leaf_value=0.017427980893349054 0.053608151067366362 -0.053531680045734435 -0.013436858330589494 0.00037820508730320753
leaf_weight=4.5914539694786098 22.159909345209599 21.628330804407597 8.2123649269342405 4.7921363711357108
leaf_count=34 353 351 42 20
internal_value=0 -0.0302445 -0.00162061 -0.00834603
internal_weight=0 39.2243 17.596 13.0045
internal_count=800 447 96 62
is_linear=0
shrinkage=0.05


Tree=41
num_leaves=5
num_cat=0
split_feature=0 1 0 0
split_gain=37.4842 10.1758 0.81658 0.210661
threshold=1996.5000000000002 1.0000000180025095e-35 1564.5000000000002 1871.5000000000002
decision_type=2 2 2 2
left_child=1 2 -1 -4
right_child=-2 -3 3 -5
leaf_value=0.016604114970569267 0.05341982101306561 -0.053347598370582242 -0.012847741911744337 0.00035926544918105921
leaf_weight=4.5786457359790829 21.151593618094921 20.642702803015709 8.1608305573463422 4.7925050854682913
leaf_count=34 353 351 42 20
internal_value=0 -0.0295573 -0.00154587 -0.00796138
internal_weight=0 38.1747 17.532 12.9533
internal_count=800 447 96 62
is_linear=0
shrinkage=0.05


Tree=42
num_leaves=5
num_cat=0
split_feature=0 1 0 0
split_gain=35.2828 9.89895 0.817088 0.430921
threshold=1996.5000000000002 1.0000000180025095e-35 1915.0000000000002 1542.5000000000002
decision_type=2 2 2 2
left_child=1 2 3 -1
right_child=-2 -3 -4 -5
leaf_value=0.019319030478449156 0.053241926023897351 -0.05317369384635804 -0.023645857609258008 -0.0011190542241338384
leaf_weight=3.3963434845209148 20.185544189065695 19.698541831225157 3.3569814860820761 10.717244058847426
leaf_count=29 353 351 14 53
internal_value=0 -0.0288735 -0.00147435 0.00379924
internal_weight=0 37.1691 17.4706 14.1136
internal_count=800 447 96 82
is_linear=0
shrinkage=0.05


Tree=43
num_leaves=5
num_cat=0
split_feature=0 1 0 0
split_gain=33.2068 9.63307 0.741052 0.3916
threshold=1996.5000000000002 1.0000000180025095e-35 1915.0000000000002 1542.5000000000002
decision_type=2 2 2 2
left_child=1 2 3 -1
right_child=-2 -3 -4 -5
leaf_value=0.018464478662114363 0.053073833045832908 -0.053009344706092879 -0.02257686997530953 -0.0010636097501265458
leaf_weight=3.3763758987188366 19.260359238833189 18.794458214193583 3.3405605256557456 10.712257757782934
leaf_count=29 353 351 14 53
internal_value=0 -0.0281792 -0.00140397 0.00361634
internal_weight=0 36.2237 17.4292 14.0886
internal_count=800 447 96 82
is_linear=0
shrinkage=0.05


Tree=44
num_leaves=5
num_cat=0
split_feature=0 1 0 0
split_gain=31.263 9.00542 0.739062 0.144347
threshold=1979.5000000000002 1.0000000180025095e-35 1672.5000000000002 1542.5000000000002
decision_type=2 2 2 2
left_child=1 2 3 -1
right_child=-2 -3 -4 -5
leaf_value=0.017643141768986816 0.051766732661443528 -0.05285295189605399 -0.011082653655604643 0.0035518899260513592
leaf_weight=3.3573746979236629 18.912007190287113 17.872848361730576 9.5883355736732465 3.9621636718511581
leaf_count=29 356 350 46 19
internal_value=0 -0.0281072 -0.00194917 0.0100154
internal_weight=0 34.7807 16.9079 7.31954
internal_count=800 444 94 48
is_linear=0
shrinkage=0.05


Tree=45
num_leaves=5
num_cat=0
split_feature=0 1 0 0
split_gain=29.4658 9.09709 0.66786 0.314645
threshold=1996.5000000000002 1.0000000180025095e-35 1915.0000000000002 1542.5000000000002
decision_type=2 2 2 2
left_child=1 2 3 -1
right_child=-2 -3 -4 -5
leaf_value=0.016854152145634859 0.052767889793629133 -0.052708290158694507 -0.021477613222878104 -0.00073022818564910229
leaf_weight=3.3392896205186871 17.545032139867544 17.106189366430044 3.3213945329189292 10.680720478296278
leaf_count=29 353 351 14 53
internal_value=0 -0.0268376 -0.00131789 0.00345802
internal_weight=0 34.4476 17.3414 14.02
internal_count=800 447 96 82
is_linear=0
shrinkage=0.05


Tree=46
num_leaves=5
num_cat=0
split_feature=0 1 0 0
split_gain=27.7366 8.84464 0.605704 0.285728
threshold=1996.5000000000002 1.0000000180025095e-35 1915.0000000000002 1542.5000000000002
decision_type=2 2 2 2
left_child=1 2 3 -1
right_child=-2 -3 -4 -5
leaf_value=0.016096603534753187 0.05262562202846606 -0.052569239293355809 -0.020507242799991107 -0.00069393591533583015
leaf_weight=3.3220738172531155 16.733328800648451 16.313864260911942 3.3050548434257498 10.677455395460127
leaf_count=29 353 351 14 53
internal_value=0 -0.0261559 -0.00125475 0.00329044
internal_weight=0 33.6184 17.3046 13.9995
internal_count=800 447 96 82
is_linear=0
shrinkage=0.05


Tree=47
num_leaves=5
num_cat=0
split_feature=0 1 0 0
split_gain=26.1105 8.59592 0.549319 0.259399
threshold=1996.5000000000002 1.0000000180025095e-35 1915.0000000000002 1542.5000000000002
decision_type=2 2 2 2
left_child=1 2 3 -1
right_child=-2 -3 -4 -5
leaf_value=0.01536958938945893 0.05249101662773728 -0.052437670825080697 -0.019580319760299798 -0.00065943424632858142
leaf_weight=3.3056836724281338 15.957020740956066 15.556180421262978 3.2888606488704673 10.674351409077643
leaf_count=29 353 351 14 53
internal_value=0 -0.0254793 -0.00119457 0.00313075
internal_weight=0 32.8251 17.2689 13.98
internal_count=800 447 96 82
is_linear=0
shrinkage=0.05


Tree=48
num_leaves=5
num_cat=0
split_feature=0 1 0 0
split_gain=24.5921 8.02585 0.54478 0.118917
threshold=1979.5000000000002 1.0000000180025095e-35 1672.5000000000002 2393.0000000000005
decision_type=2 2 2 2
left_child=1 2 -1 -2
right_child=3 -3 -4 -5
leaf_value=0.0085539590722965558 0.036615222597273928 -0.052311244254550374 -0.0096423994157411822 0.052363635122174006
leaf_weight=7.2545194923877743 1.3072255626320828 14.780650846660139 9.4996076673269254 14.438955318182705
leaf_count=48 21 350 46 335
internal_value=0 -0.0254557 -0.0017634 0.0510562
internal_weight=0 31.5348 16.7541 15.7462
internal_count=800 444 94 356
is_linear=0
shrinkage=0.05


Tree=49
num_leaves=5
num_cat=0
split_feature=0 1 0 0
split_gain=23.1653 8.10535 0.543825 1.47905
threshold=1996.5000000000002 1.0000000180025095e-35 1891.0000000000002 1732.0000000000002
decision_type=2 2 2 2
left_child=1 2 3 -1
right_child=-2 -3 -4 -5
leaf_value=0.0051594077856821265 0.052244891426670693 -0.05219634070242523 0.014485413265225941 -0.031299878941065298
leaf_weight=8.9493536055088061 14.516025364398955 14.143596395850183 4.2212660908699027 4.0362487733364096
leaf_count=57 353 351 18 21
internal_value=0 -0.0241546 -0.00110502 -0.00617305
internal_weight=0 31.3505 17.2069 12.9856
internal_count=800 447 96 78
is_linear=0
shrinkage=0.05


Tree=50
num_leaves=5
num_cat=0
split_feature=0 1 0 0
split_gain=21.8131 7.86614 0.535949 0.200366
threshold=1996.5000000000002 1.0000000180025095e-35 1915.0000000000002 1542.5000000000002
decision_type=2 2 2 2
left_child=1 2 3 -1
right_child=-2 -3 -4 -5
leaf_value=0.014047279530374955 0.05213061826812701 -0.052084641669849142 -0.019230198626762243 -9.8273526933703254e-05
leaf_weight=3.2761870920658138 13.837574016302822 13.481929231435062 3.2810126543045035 10.612295269966124
leaf_count=29 353 351 14 53
internal_value=0 -0.0235003 -0.00105512 0.00323855
internal_weight=0 30.6514 17.1695 13.8885
internal_count=800 447 96 82
is_linear=0
shrinkage=0.05


Tree=51
num_leaves=5
num_cat=0
split_feature=0 1 0 0
split_gain=20.539 7.63291 0.539049 1.33634
threshold=1996.5000000000002 1.0000000180025095e-35 1891.0000000000002 1732.0000000000002
decision_type=2 2 2 2
left_child=1 2 3 -1
right_child=-2 -3 -4 -5
leaf_value=0.004651717447018147 0.052022396045803922 -0.051978844598803697 0.014509988682863557 -0.030186669701909814
leaf_weight=8.9419880956411379 13.189398590475319 12.849850673228504 4.2202550172805777 3.9767284989356986
leaf_count=57 353 351 18 21
internal_value=0 -0.0228463 -0.0010043 -0.00607248
internal_weight=0 29.9888 17.139 12.9187
internal_count=800 447 96 78
is_linear=0
shrinkage=0.05


Tree=52
num_leaves=5
num_cat=0
split_feature=0 1 0 0
split_gain=19.343 7.40119 0.528765 0.166039
threshold=1996.5000000000002 1.0000000180025095e-35 1915.0000000000002 1542.5000000000002
decision_type=2 2 2 2
left_child=1 2 3 -1
right_child=-2 -3 -4 -5
leaf_value=0.01319109454319461 0.05191987127896705 -0.051878619190822831 -0.019016662718982568 0.00027929060886129658
leaf_weight=3.2572940140962627 12.570292737334965 12.246174726635219 3.2771589159965506 10.568042248487471
leaf_count=29 353 351 14 53
internal_value=0 -0.022206 -0.00095903 0.00332135
internal_weight=0 29.3487 17.1025 13.8253
internal_count=800 447 96 82
is_linear=0
shrinkage=0.05


Tree=53
num_leaves=5
num_cat=0
split_feature=0 1 0 0
split_gain=18.2156 7.17561 0.533879 1.20804
threshold=1996.5000000000002 1.0000000180025095e-35 1891.0000000000002 1732.0000000000002
decision_type=2 2 2 2
left_child=1 2 3 -1
right_child=-2 -3 -4 -5
leaf_value=0.0041733263123943853 0.051822740276999485 -0.051783644691320053 0.014519519857193268 -0.029121049756583806
leaf_weight=8.9357090294361132 11.979078259319065 11.669746726751329 4.2194091677665702 3.9195098578929892
leaf_count=57 353 351 18 21
internal_value=0 -0.0215655 -0.000912747 -0.00597801
internal_weight=0 28.7444 17.0746 12.8552
internal_count=800 447 96 78
is_linear=0
shrinkage=0.05


Tree=54
num_leaves=5
num_cat=0
split_feature=0 1 0 0
split_gain=17.1576 6.95156 0.521717 0.137186
threshold=1996.5000000000002 1.0000000180025095e-35 1915.0000000000002 1542.5000000000002
decision_type=2 2 2 2
left_child=1 2 3 -1
right_child=-2 -3 -4 -5
leaf_value=0.012391783048022437 0.051730685411750771 -0.051693632949186899 -0.018813168543903736 0.00062559125259950977
leaf_weight=3.2397943288087871 11.414617188274859 11.119447246193888 3.2734597921371451 10.525844156742094
leaf_count=29 353 351 14 53
internal_value=0 -0.0209406 -0.000871669 0.00339481
internal_weight=0 28.1585 17.0391 13.7656
internal_count=800 447 96 82
is_linear=0
shrinkage=0.05


Tree=55
num_leaves=5
num_cat=0
split_feature=0 1 0 0
split_gain=16.1601 6.73376 0.52837 1.09262
threshold=1996.5000000000002 1.0000000180025095e-35 1891.0000000000002 1732.0000000000002
decision_type=2 2 2 2
left_child=1 2 3 -1
right_child=-2 -3 -4 -5
leaf_value=0.0037226293222611916 0.051643433062973289 -0.051608311441346866 0.014515612993036914 -0.028100093189348665
leaf_weight=8.9304123967885989 10.875801412388681 10.594190806150438 4.218694031238555 3.864574968814849
leaf_count=57 353 351 18 21
internal_value=0 -0.0203153 -0.000829531 -0.00588905
internal_weight=0 27.6079 17.0137 12.795
internal_count=800 447 96 78
is_linear=0
shrinkage=0.05


Tree=56
num_leaves=5
num_cat=0
split_feature=0 1 0 0
split_gain=15.2241 6.51763 0.514783 0.141812
threshold=1996.5000000000002 1.0000000180025095e-35 1915.0000000000002 1632.5000000000002
decision_type=2 2 2 2
left_child=1 2 3 -1
right_child=-2 -3 -4 -5
leaf_value=-0.0018000899295918978 0.051560714476114239 -0.051527418328749824 -0.018618653352246387 0.008376360773288587
leaf_weight=6.6235489845275897 10.361560164019464 10.092927839607002 3.2698999345302573 7.0856847614049911
leaf_count=45 353 351 14 37
internal_value=0 -0.0197072 -0.000792259 0.00345966
internal_weight=0 27.0721 16.9791 13.7092
internal_count=800 447 96 82
is_linear=0
shrinkage=0.05


Tree=57
num_leaves=5
num_cat=0
split_feature=0 1 0 0
split_gain=14.3367 6.31259 0.516262 1.02212
threshold=1996.5000000000002 1.0000000180025095e-35 1891.0000000000002 1732.0000000000002
decision_type=2 2 2 2
left_child=1 2 3 -1
right_child=-2 -3 -4 -5
leaf_value=0.0034891478677572772 0.051482280509403025 -0.051450711992535751 0.014410126938939167 -0.027389760818646247
leaf_weight=8.9442532807588595 9.87085755728185 9.6146420948207396 4.219428062438964 3.8263408541679373
leaf_count=57 353 351 18 21
internal_value=0 -0.0190746 -0.000752927 -0.00576283
internal_weight=0 26.6047 16.99 12.7706
internal_count=800 447 96 78
is_linear=0
shrinkage=0.05


Tree=58
num_leaves=5
num_cat=0
split_feature=0 1 0 0
split_gain=13.509 6.10424 0.507509 0.149172
threshold=1996.5000000000002 1.0000000180025095e-35 1915.0000000000002 1632.5000000000002
decision_type=2 2 2 2
left_child=1 2 3 -1
right_child=-2 -3 -4 -5
leaf_value=-0.0018844272503917407 0.051407902316630151 -0.051377960168702219 -0.018428118228531305 0.0085597040938121417
leaf_weight=6.6239736825227755 9.4026924539357406 9.1583538912236708 3.266390234231948 7.0657764077186584
leaf_count=45 353 351 14 37
internal_value=0 -0.0184852 -0.000719201 0.00350617
internal_weight=0 26.1145 16.9561 13.6898
internal_count=800 447 96 82
is_linear=0
shrinkage=0.05


Tree=59
num_leaves=5
num_cat=0
split_feature=0 1 0 0
split_gain=12.7243 5.90626 0.504406 0.957203
threshold=1996.5000000000002 1.0000000180025095e-35 1891.0000000000002 1732.0000000000002
decision_type=2 2 2 2
left_child=1 2 3 -1
right_child=-2 -3 -4 -5
leaf_value=0.0032679584044609774 0.051337352072851242 -0.051308951247948591 0.014299768339921035 -0.026708541433290711
leaf_weight=8.9579010158777255 8.9560986310243589 8.723116874694826 4.2200002074241629 3.7896974831819525
leaf_count=57 353 351 18 21
internal_value=0 -0.0178731 -0.000683551 -0.00564367
internal_weight=0 25.6907 16.9676 12.7476
internal_count=800 447 96 78
is_linear=0
shrinkage=0.05


Tree=60
num_leaves=5
num_cat=0
split_feature=0 1 0 0
split_gain=11.9924 5.70602 0.500105 0.155396
threshold=1996.5000000000002 1.0000000180025095e-35 1915.0000000000002 1632.5000000000002
decision_type=2 2 2 2
left_child=1 2 3 -1
right_child=-2 -3 -4 -5
leaf_value=-0.0019535023526614324 0.051270430671574066 -0.051243483728930089 -0.018241165134474224 0.0087129715278231532
leaf_weight=6.6243198215961474 8.5301439892500621 8.3080186583101767 3.2629249691963187 7.0471325814723969
leaf_count=45 353 351 14 37
internal_value=0 -0.0173038 -0.000653033 0.00354467
internal_weight=0 25.2424 16.9344 13.6715
internal_count=800 447 96 82
is_linear=0
shrinkage=0.05


Tree=61
num_leaves=5
num_cat=0
split_feature=0 1 0 0
split_gain=11.2985 5.51546 0.492811 0.917385
threshold=1996.5000000000002 1.0000000180025095e-35 1891.0000000000002 1672.5000000000002
decision_type=2 2 2 2
left_child=1 2 3 -1
right_child=-2 -3 -4 -5
leaf_value=0.0061576740097054033 0.051206937690901372 -0.051181371503516718 0.014185374044589966 -0.020949349021995342
leaf_weight=7.2384418398141914 8.1239313110709173 7.9121808446943751 4.2203929722309104 5.4874636232852936
leaf_count=48 353 351 18 30
internal_value=0 -0.0167136 -0.000620724 -0.00553099
internal_weight=0 24.8585 16.9463 12.7259
internal_count=800 447 96 78
is_linear=0
shrinkage=0.05


Tree=62
num_leaves=5
num_cat=0
split_feature=0 1 0 0
split_gain=10.652 5.32273 0.492642 0.169818
threshold=1996.5000000000002 1.0000000180025095e-35 1915.0000000000002 1632.5000000000002
decision_type=2 2 2 2
left_child=1 2 3 -1
right_child=-2 -3 -4 -5
leaf_value=-0.0021633868847960114 0.051146687165658969 -0.05112242848534624 -0.018057439694189222 0.0089968782976686413
leaf_weight=6.6253613382577949 7.7365955635905257 7.5347577054053536 3.2594990134239188 7.0204574912786484
leaf_count=45 353 351 14 37
internal_value=0 -0.0161712 -0.000593259 0.00357831
internal_weight=0 24.4401 16.9053 13.6458
internal_count=800 447 96 82
is_linear=0
shrinkage=0.05


Tree=63
num_leaves=5
num_cat=0
split_feature=0 1 0 0
split_gain=10.0383 5.14002 0.481441 0.86636
threshold=1996.5000000000002 1.0000000180025095e-35 1891.0000000000002 1672.5000000000002
decision_type=2 2 2 2
left_child=1 2 3 -1
right_child=-2 -3 -4 -5
leaf_value=0.005906328872126213 0.051089515958241273 -0.051066492184666828 0.014065787575354295 -0.02047795781641136
leaf_weight=7.2433794885873883 7.3673052806407204 7.1749361939728251 4.2206146717071524 5.4541233330965042
leaf_count=48 353 351 18 30
internal_value=0 -0.0156037 -0.000563967 -0.00542686
internal_weight=0 24.0931 16.9181 12.6975
internal_count=800 447 96 78
is_linear=0
shrinkage=0.05


Tree=64
num_leaves=5
num_cat=0
split_feature=0 1 0 0
split_gain=9.46637 4.95604 0.48508 0.183047
threshold=1996.5000000000002 1.0000000180025095e-35 1915.0000000000002 1632.5000000000002
decision_type=2 2 2 2
left_child=1 2 3 -1
right_child=-2 -3 -4 -5
leaf_value=-0.0023502213772695285 0.051035249886148694 -0.05101339687869122 -0.0178765692054892 0.0092461529592540344
leaf_weight=6.626275673508653 7.0152611806988707 6.8319346401840439 3.2561064660549155 6.9955872595310211
leaf_count=45 353 351 14 37
internal_value=0 -0.0150831 -0.000539103 0.00360516
internal_weight=0 23.7099 16.878 13.6219
internal_count=800 447 96 82
is_linear=0
shrinkage=0.05


Tree=65
num_leaves=5
num_cat=0
split_feature=0 1 0 0
split_gain=8.92348 4.7814 0.470222 0.829042
threshold=1996.5000000000002 1.0000000180025095e-35 1891.0000000000002 1732.0000000000002
decision_type=2 2 2 2
left_child=1 2 3 -1
right_child=-2 -3 -4 -5
leaf_value=0.0029007446135694676 0.050983742448743999 -0.050962997010071232 0.013941880642815211 -0.025207149236520135
leaf_weight=8.9617324322462171 6.6796942614018908 6.505002098158001 4.2206452190875998 3.7091529518365851
leaf_count=57 353 351 18 21
internal_value=0 -0.0145394 -0.000512549 -0.00532729
internal_weight=0 23.3965 16.8915 12.6709
internal_count=800 447 96 78
is_linear=0
shrinkage=0.05


Tree=66
num_leaves=5
num_cat=0
split_feature=0 1 0 0
split_gain=8.41687 4.60687 0.477386 0.186078
threshold=1996.5000000000002 1.0000000180025095e-35 1915.0000000000002 1632.5000000000002
decision_type=2 2 2 2
left_child=1 2 3 -1
right_child=-2 -3 -4 -5
leaf_value=-0.0023777007208914467 0.050934842036022158 -0.050915155233186328 -0.017698223163458576 0.0093202945885363358
leaf_weight=6.6264093816280454 6.3598677050322285 6.1934170369058839 3.2527422010898581 6.9806958138942719
leaf_count=45 353 351 14 37
internal_value=0 -0.0140371 -0.000489995 0.00362359
internal_weight=0 23.0533 16.8598 13.6071
internal_count=800 447 96 82
is_linear=0
shrinkage=0.05


Tree=67
num_leaves=5
num_cat=0
split_feature=0 1 0 0
split_gain=7.93662 4.44041 0.45921 0.796275
threshold=1996.5000000000002 1.0000000180025095e-35 1891.0000000000002 1672.5000000000002
decision_type=2 2 2 2
left_child=1 2 3 -1
right_child=-2 -3 -4 -5
leaf_value=0.005596020511100433 0.050888418975723985 -0.050869724677696196 0.013816165140761609 -0.019762438324351723
leaf_weight=7.2514154165983289 6.0550730004906645 5.8964893072843543 4.2204484939575186 5.401731938123703
leaf_count=48 353 351 18 30
internal_value=0 -0.0135184 -0.00046593 -0.00522971
internal_weight=0 22.7701 16.8736 12.6531
internal_count=800 447 96 78
is_linear=0
shrinkage=0.05


Tree=68
num_leaves=5
num_cat=0
split_feature=0 1 0 0
split_gain=7.4888 4.2742 0.469681 0.197493
threshold=1996.5000000000002 1.0000000180025095e-35 1915.0000000000002 1632.5000000000002
decision_type=2 2 2 2
left_child=1 2 3 -1
right_child=-2 -3 -4 -5
leaf_value=-0.0025383297371350385 0.050844341067712739 -0.050826584618934779 -0.017522201257712814 0.009522285987776942
leaf_weight=6.6271843016147702 5.7646311577409497 5.6135542653501025 3.2494034171104422 6.9581353366374969
leaf_count=45 353 351 14 37
internal_value=0 -0.0130442 -0.000445586 0.00363888
internal_weight=0 22.4483 16.8347 13.5853
internal_count=800 447 96 82
is_linear=0
shrinkage=0.05


Tree=69
num_leaves=5
num_cat=0
split_feature=0 1 0 0
split_gain=7.06379 4.11611 0.448441 0.755927
threshold=1996.5000000000002 1.0000000180025095e-35 1891.0000000000002 1672.5000000000002
decision_type=2 2 2 2
left_child=1 2 3 -1
right_child=-2 -3 -4 -5
leaf_value=0.0053875061621378798 0.050802482270185079 -0.050785626937557206 0.013687356897522216 -0.019354583595647703
leaf_weight=7.2559921741485685 5.4878906579688183 5.3439760338515034 4.2200352251529685 5.3730427622795105
leaf_count=48 353 351 18 30
internal_value=0 -0.0125507 -0.000423773 -0.00513905
internal_weight=0 22.193 16.8491 12.629
internal_count=800 447 96 78
is_linear=0
shrinkage=0.05


Tree=70
num_leaves=5
num_cat=0
split_feature=0 1 0 0
split_gain=6.66731 3.95886 0.461927 0.207699
threshold=1996.5000000000002 1.0000000180025095e-35 1915.0000000000002 1632.5000000000002
decision_type=2 2 2 2
left_child=1 2 3 -1
right_child=-2 -3 -4 -5
leaf_value=-0.0026805219951490239 0.05076273369351119 -0.050746725203156609 -0.017348269224331938 0.0096966947868461321
leaf_weight=6.6278628706932157 5.2242277255281797 5.0871458668261758 3.2460864186286917 6.9369638115167618
leaf_count=45 353 351 14 37
internal_value=0 -0.0121002 -0.000405361 0.00364911
internal_weight=0 21.8981 16.8109 13.5648
internal_count=800 447 96 82
is_linear=0
shrinkage=0.05


Tree=71
num_leaves=5
num_cat=0
split_feature=0 1 0 0
split_gain=6.29105 3.80919 0.43785 0.725959
threshold=1996.5000000000002 1.0000000180025095e-35 1891.0000000000002 1732.0000000000002
decision_type=2 2 2 2
left_child=1 2 3 -1
right_child=-2 -3 -4 -5
leaf_value=0.0025912402009340128 0.050724980916784505 -0.050709777384316229 0.013556099955530934 -0.023887941370731251
leaf_weight=8.9675714075565427 4.9730443619191638 4.8424795512109986 4.2193925082683554 3.6388016939163199
leaf_count=57 353 351 18 21
internal_value=0 -0.0116322 -0.00038559 -0.00505192
internal_weight=0 21.6682 16.8258 12.6064
internal_count=800 447 96 78
is_linear=0
shrinkage=0.05


Tree=72
num_leaves=5
num_cat=0
split_feature=0 1 0 0
split_gain=5.93955 3.66118 0.454089 0.207814
threshold=1996.5000000000002 1.0000000180025095e-35 1915.0000000000002 1632.5000000000002
decision_type=2 2 2 2
left_child=1 2 3 -1
right_child=-2 -3 -4 -5
leaf_value=-0.0026760665413629189 0.050689123836449336 -0.050674683491092609 -0.017176210026974656 0.0097098822059306297
leaf_weight=6.6278416216373532 4.7337681613862506 4.6094186957925549 3.2427879869937888 6.9248043894767761
leaf_count=45 353 351 14 37
internal_value=0 -0.011202 -0.000368929 0.00365261
internal_weight=0 21.4049 16.7954 13.5526
internal_count=800 447 96 82
is_linear=0
shrinkage=0.05


Tree=73
num_leaves=5
num_cat=0
split_feature=0 1 0 0
split_gain=5.60636 3.51986 0.427491 0.701668
threshold=1996.5000000000002 1.0000000180025095e-35 1891.0000000000002 1672.5000000000002
decision_type=2 2 2 2
left_child=1 2 3 -1
right_child=-2 -3 -4 -5
leaf_value=0.0051430380893064008 0.050655064322501414 -0.050641345227649431 0.013424605645642322 -0.018746787727327931
leaf_weight=7.2634718865156263 4.5058508012443772 4.3874284587800494 4.2184972465038291 5.3282959312200546
leaf_count=48 353 351 18 30
internal_value=0 -0.0107599 -0.000351003 -0.00496611
internal_weight=0 21.1977 16.8103 12.5918
internal_count=800 447 96 78
is_linear=0
shrinkage=0.05


Tree=74
num_leaves=5
num_cat=0
split_feature=0 1 0 0
split_gain=5.29521 3.38026 0.446282 0.216418
threshold=1996.5000000000002 1.0000000180025095e-35 1915.0000000000002 1632.5000000000002
decision_type=2 2 2 2
left_child=1 2 3 -1
right_child=-2 -3 -4 -5
leaf_value=-0.0027991743224995438 0.050622710509790614 -0.050609676440684051 -0.017005931573923442 0.0098490551963015989
leaf_weight=6.6284235715866178 4.2887682029977432 4.1759965624660245 3.2395069897174826 6.9052393585443497
leaf_count=45 353 351 14 37
internal_value=0 -0.0103575 -0.000335945 0.00365429
internal_weight=0 20.9492 16.7732 13.5337
internal_count=800 447 96 82
is_linear=0
shrinkage=0.05


Tree=75
num_leaves=5
num_cat=0
split_feature=0 1 0 0
split_gain=5.00047 3.13749 0.346153 0.307942
threshold=1979.5000000000002 1.0000000180025095e-35 1833.0000000000002 1632.5000000000002
decision_type=2 2 2 2
left_child=1 2 3 -1
right_child=-2 -3 -4 -5
leaf_value=-0.0026594877042575003 0.047214332593363897 -0.050578807801233416 -0.011401460304304308 0.014471023255424648
leaf_weight=6.6277628988027661 4.5759613625705233 3.9594553876668206 5.339710220694541 4.342148557305336
leaf_count=45 356 350 25 24
internal_value=0 -0.0106535 -0.000960882 0.00412117
internal_weight=0 20.2691 16.3096 10.9699
internal_count=800 444 94 69
is_linear=0
shrinkage=0.05


Tree=76
num_leaves=5
num_cat=0
split_feature=0 1 0 0
split_gain=4.74077 3.11476 0.433515 0.689207
threshold=1996.5000000000002 1.0000000180025095e-35 1891.0000000000002 1672.5000000000002
decision_type=2 2 2 2
left_child=1 2 3 -1
right_child=-2 -3 -4 -5
leaf_value=0.0050227102221610254 0.05056466624989088 -0.050551395721283934 0.013545354325035433 -0.018656199458163332
leaf_weight=7.2706194519996732 3.8979737954214206 3.7843128852546206 4.2116197049617758 5.3227647095918655
leaf_count=48 353 351 18 30
internal_value=0 -0.00956995 -0.000341355 -0.0049855
internal_weight=0 20.5893 16.805 12.5934
internal_count=800 447 96 78
is_linear=0
shrinkage=0.05


Tree=77
num_leaves=5
num_cat=0
split_feature=0 1 0 0
split_gain=4.47993 2.98829 0.431404 0.210762
threshold=1996.5000000000002 1.0000000180025095e-35 1915.0000000000002 1632.5000000000002
decision_type=2 2 2 2
left_child=1 2 3 -1
right_child=-2 -3 -4 -5
leaf_value=-0.0027774189739879769 0.050536829698909741 -0.0505242148570215 -0.016740359868345239 0.0097032097790861957
leaf_weight=6.6283210664987653 3.7098584091290823 3.601637407205998 3.2317271232604972 6.9081277996301651
leaf_count=45 353 351 14 37
internal_value=0 -0.00920228 -0.000326743 0.00359189
internal_weight=0 20.3698 16.7682 13.5364
internal_count=800 447 96 82
is_linear=0
shrinkage=0.05


Tree=78
num_leaves=5
num_cat=0
split_feature=0 1 0 0
split_gain=4.23245 2.86774 0.422446 0.657025
threshold=1996.5000000000002 1.0000000180025095e-35 1891.0000000000002 1672.5000000000002
decision_type=2 2 2 2
left_child=1 2 3 -1
right_child=-2 -3 -4 -5
leaf_value=0.004852306399299431 0.050510370003676724 -0.050498387403935918 0.013396372010818704 -0.018296103180436611
leaf_weight=7.274705946445474 3.5307283066213122 3.4276915499940506 4.2106749117374411 5.2976012080907822
leaf_count=48 353 351 18 30
internal_value=0 -0.00882264 -0.000310945 -0.00490175
internal_weight=0 20.2107 16.783 12.5723
internal_count=800 447 96 78
is_linear=0
shrinkage=0.05


Tree=79
num_leaves=5
num_cat=0
split_feature=0 1 0 0
split_gain=4.00096 2.74952 0.424615 0.218082
threshold=1996.5000000000002 1.0000000180025095e-35 1915.0000000000002 1632.5000000000002
decision_type=2 2 2 2
left_child=1 2 3 -1
right_child=-2 -3 -4 -5
leaf_value=-0.0028809574154817878 0.050485235138082001 -0.050473843612286545 -0.016588430176108209 0.0098228708372250714
leaf_weight=6.6288071274757474 3.3601627564057699 3.2620665933936825 3.2287678420543662 6.8891885876655579
leaf_count=45 353 351 14 37
internal_value=0 -0.008478 -0.000297723 0.00359331
internal_weight=0 20.0088 16.7468 13.518
internal_count=800 447 96 82
is_linear=0
shrinkage=0.05


Tree=80
num_leaves=5
num_cat=0
split_feature=0 1 0 0
split_gain=3.78134 2.63681 0.411675 0.627468
threshold=1996.5000000000002 1.0000000180025095e-35 1891.0000000000002 1672.5000000000002
decision_type=2 2 2 2
left_child=1 2 3 -1
right_child=-2 -3 -4 -5
leaf_value=0.0046945046589089382 0.050461342018467359 -0.050450525326877972 0.013247809226163058 -0.017954200348873205
leaf_weight=7.2786702513694852 3.1977607188746324 3.104371807537972 4.2094548642635337 5.2737589329481125
leaf_count=48 353 351 18 30
internal_value=0 -0.00812269 -0.0002834 -0.00482109
internal_weight=0 19.8663 16.7619 12.5524
internal_count=800 447 96 78
is_linear=0
shrinkage=0.05


Tree=81
num_leaves=5
num_cat=0
split_feature=0 1 0 0
split_gain=3.57577 2.52656 0.417742 0.224378
threshold=1996.5000000000002 1.0000000180025095e-35 1915.0000000000002 1632.5000000000002
decision_type=2 2 2 2
left_child=1 2 3 -1
right_child=-2 -3 -4 -5
leaf_value=-0.0029714488432187628 0.050438643554295698 -0.050428359899028746 -0.016436595721383489 0.0099224838879017757
leaf_weight=6.6292287856340497 3.0431386288255444 2.9542351076379409 3.2257974445819846 6.8712158352136612
leaf_count=45 353 351 14 37
internal_value=0 -0.00780048 -0.000271431 0.00359108
internal_weight=0 19.6805 16.7262 13.5004
internal_count=800 447 96 82
is_linear=0
shrinkage=0.05


Tree=82
num_leaves=5
num_cat=0
split_feature=0 1 0 0
split_gain=3.38073 2.42145 0.401198 0.602239
threshold=1996.5000000000002 1.0000000180025095e-35 1891.0000000000002 1732.0000000000002
decision_type=2 2 2 2
left_child=1 2 3 -1
right_child=-2 -3 -4 -5
leaf_value=0.0021469450947108411 0.050417061849334845 -0.050407295772380192 0.013099944870818959 -0.022177296448034799
leaf_weight=8.9832913428545087 2.8959306403994551 2.8113001137971869 4.2079579830169669 3.5503622889518729
leaf_count=57 353 351 18 21
internal_value=0 -0.0074688 -0.000258445 -0.00474329
internal_weight=0 19.5529 16.7416 12.5337
internal_count=800 447 96 78
is_linear=0
shrinkage=0.05


Tree=83
num_leaves=5
num_cat=0
split_feature=0 1 0 0
split_gain=3.19792 2.31899 0.410763 0.221217
threshold=1996.5000000000002 1.0000000180025095e-35 1915.0000000000002 1632.5000000000002
decision_type=2 2 2 2
left_child=1 2 3 -1
right_child=-2 -3 -4 -5
leaf_value=-0.002930307568770382 0.050396557466937435 -0.050387272110798076 -0.016284888140758475 0.0098771817250533633
leaf_weight=6.6290374845266431 2.7557870335876933 2.6752271298319092 3.2228169143199912 6.8611966371536255
leaf_count=45 353 351 14 37
internal_value=0 -0.007166 -0.000247654 0.00358364
internal_weight=0 19.3883 16.7131 13.4902
internal_count=800 447 96 82
is_linear=0
shrinkage=0.05


Tree=84
num_leaves=5
num_cat=0
split_feature=0 1 0 0
split_gain=3.0246 2.22117 0.391055 0.58907
threshold=1996.5000000000002 1.0000000180025095e-35 1891.0000000000002 1672.5000000000002
decision_type=2 2 2 2
left_child=1 2 3 -1
right_child=-2 -3 -4 -5
leaf_value=0.004528071080339975 0.050377071281279939 -0.050368242579959491 0.012954529171082269 -0.017457365142214545
leaf_weight=7.2851319611072629 2.6223742309957734 2.5456920014694324 4.2061786651611319 5.2368922531604767
leaf_count=48 353 351 18 30
internal_value=0 -0.00685734 -0.00023587 -0.00466656
internal_weight=0 19.2739 16.7282 12.522
internal_count=800 447 96 78
is_linear=0
shrinkage=0.05


Tree=85
num_leaves=5
num_cat=0
split_feature=0 1 0 0
split_gain=2.86214 2.12593 0.403784 0.226392
threshold=1996.5000000000002 1.0000000180025095e-35 1915.0000000000002 1632.5000000000002
decision_type=2 2 2 2
left_child=1 2 3 -1
right_child=-2 -3 -4 -5
leaf_value=-0.0030100302833258922 0.050358541827309179 -0.050350152582611975 -0.016133407733276536 0.0099541282419208441
leaf_weight=6.629407688975343 2.4953740900382391 2.4223851310089222 3.2198282778263083 6.8441395610570908
leaf_count=45 353 351 14 37
internal_value=0 -0.0065779 -0.000226082 0.00357536
internal_weight=0 19.1158 16.6934 13.4735
internal_count=800 447 96 82
is_linear=0
shrinkage=0.05


Tree=86
num_leaves=5
num_cat=0
split_feature=0 1 0 0
split_gain=2.70798 2.03511 0.381235 0.564416
threshold=1996.5000000000002 1.0000000180025095e-35 1891.0000000000002 1672.5000000000002
decision_type=2 2 2 2
left_child=1 2 3 -1
right_child=-2 -3 -4 -5
leaf_value=0.0043913399207664988 0.050340934233629134 -0.050332957983491813 0.012810018936442813 -0.017152192209524023
leaf_weight=7.288819447159776 2.3744826298207036 2.3050113189965478 4.2041286528110495 5.2157545536756516
leaf_count=48 353 351 18 30
internal_value=0 -0.00629109 -0.000215395 -0.00459463
internal_weight=0 19.0137 16.7087 12.5046
internal_count=800 447 96 78
is_linear=0
shrinkage=0.05


Tree=87
num_leaves=5
num_cat=0
split_feature=0 1 0 0
split_gain=2.56337 1.94687 0.396777 0.230682
threshold=1996.5000000000002 1.0000000180025095e-35 1915.0000000000002 1632.5000000000002
decision_type=2 2 2 2
left_child=1 2 3 -1
right_child=-2 -3 -4 -5
leaf_value=-0.0030789489977151958 0.050324198189907549 -0.050316616327347602 -0.015982184453889679 0.010015007010235531
leaf_weight=6.6297257244587033 2.2594100143760434 2.1932887807488433 3.2168324887752524 6.8278291374444962
leaf_count=45 353 351 14 37
internal_value=0 -0.00603162 -0.000206535 0.0035644
internal_weight=0 18.8677 16.6744 13.4576
internal_count=800 447 96 82
is_linear=0
shrinkage=0.05


Tree=88
num_leaves=5
num_cat=0
split_feature=0 1 0 0
split_gain=2.42615 1.86274 0.37168 0.541599
threshold=1996.5000000000002 1.0000000180025095e-35 1891.0000000000002 1672.5000000000002
decision_type=2 2 2 2
left_child=1 2 3 -1
right_child=-2 -3 -4 -5
leaf_value=0.0042641724453435746 0.050308286187533184 -0.050301078668601264 0.012666603465670551 -0.01686106501691104
leaf_weight=7.2923953980207532 2.1498798783868542 2.0869489805772892 4.201809734106063 5.1956333965063095
leaf_count=48 353 351 18 30
internal_value=0 -0.00576568 -0.00019684 -0.00452496
internal_weight=0 18.7768 16.6898 12.488
internal_count=800 447 96 78
is_linear=0
shrinkage=0.05


Tree=89
num_leaves=5
num_cat=0
split_feature=0 1 0 0
split_gain=2.29733 1.78114 0.389756 0.234152
threshold=1996.5000000000002 1.0000000180025095e-35 1915.0000000000002 1632.5000000000002
decision_type=2 2 2 2
left_child=1 2 3 -1
right_child=-2 -3 -4 -5
leaf_value=-0.003138082734439579 0.050293159408859048 -0.050286311146374302 -0.015831257121893469 0.010061309264609675
leaf_weight=6.6299973875284284 2.0456285388208917 1.9857356566935767 3.2138301730155936 6.8121824264526367
leaf_count=45 353 351 14 37
internal_value=0 -0.00552525 -0.000188819 0.00355106
internal_weight=0 18.6417 16.656 13.4422
internal_count=800 447 96 82
is_linear=0
shrinkage=0.05


Tree=90
num_leaves=5
num_cat=0
split_feature=0 1 0 0
split_gain=2.17508 1.70334 0.362386 0.522676
threshold=1996.5000000000002 1.0000000180025095e-35 1891.0000000000002 1732.0000000000002
decision_type=2 2 2 2
left_child=1 2 3 -1
right_child=-2 -3 -4 -5
leaf_value=0.0019146209862502426 0.050278781134843166 -0.050272267544910744 0.012524451376514353 -0.020899143173635251
leaf_weight=8.988716036081323 1.9464044766500581 1.8894044877961267 4.1992246806621543 3.4835992455482474
leaf_count=57 353 351 18 21
internal_value=0 -0.00527915 -0.000180024 -0.00445741
internal_weight=0 18.5609 16.6715 12.4723
internal_count=800 447 96 78
is_linear=0
shrinkage=0.05


Tree=91
num_leaves=5
num_cat=0
split_feature=0 1 0 0
split_gain=2.06017 1.62807 0.382698 0.22883
threshold=1996.5000000000002 1.0000000180025095e-35 1915.0000000000002 1632.5000000000002
decision_type=2 2 2 2
left_child=1 2 3 -1
right_child=-2 -3 -4 -5
leaf_value=-0.0030770414354721891 0.050265108418407728 -0.050258920205186103 -0.015680670611749239 0.0099756321444640847
leaf_weight=6.6297170072794049 1.8519681724719692 1.7977224444039155 3.2108226716518393 6.8036972433328629
leaf_count=45 353 351 14 37
internal_value=0 -0.00505522 -0.000172828 0.00353382
internal_weight=0 18.442 16.6442 13.4334
internal_count=800 447 96 82
is_linear=0
shrinkage=0.05


Tree=92
num_leaves=5
num_cat=0
split_feature=0 1 0 0
split_gain=1.95119 1.55626 0.353391 0.512946
threshold=1996.5000000000002 1.0000000180025095e-35 1891.0000000000002 1672.5000000000002
decision_type=2 2 2 2
left_child=1 2 3 -1
right_child=-2 -3 -4 -5
leaf_value=0.0041427468742292464 0.050252112962833731 -0.050246224747821089 0.012385126961262311 -0.016448438814664519
leaf_weight=7.2982216179370969 1.7620906606316555 1.7104676198214281 4.1963780820369712 5.1648284941911697
leaf_count=48 353 351 18 30
internal_value=0 -0.00482804 -0.000164832 -0.00439047
internal_weight=0 18.3699 16.6594 12.4631
internal_count=800 447 96 78
is_linear=0
shrinkage=0.05


Tree=93
num_leaves=5
num_cat=0
split_feature=0 1 0 0
split_gain=1.84871 1.48684 0.375696 0.231595
threshold=1996.5000000000002 1.0000000180025095e-35 1915.0000000000002 1632.5000000000002
decision_type=2 2 2 2
left_child=1 2 3 -1
right_child=-2 -3 -4 -5
leaf_value=-0.0031302135616585736 0.050239761397762706 -0.050234158045745374 -0.015530531968333029 0.010008227189327694
leaf_weight=6.6299611777067273 1.6765543008223165 1.6274280906654883 3.2078121006488791 6.7884846180677414
leaf_count=45 353 351 14 37
internal_value=0 -0.00462285 -0.000158275 0.00351661
internal_weight=0 18.2537 16.6263 13.4184
internal_count=800 447 96 82
is_linear=0
shrinkage=0.05


Tree=94
num_leaves=5
num_cat=0
split_feature=0 1 0 0
split_gain=1.75145 1.42066 0.344676 0.493389
threshold=1996.5000000000002 1.0000000180025095e-35 1891.0000000000002 1672.5000000000002
decision_type=2 2 2 2
left_child=1 2 3 -1
right_child=-2 -3 -4 -5
leaf_value=0.004029897152167959 0.050228009861790546 -0.050222689325351622 0.012247113785086099 -0.016183904534673093
leaf_weight=7.3015417903661817 1.5951514714397479 1.5484020770527411 4.1932777464389792 5.1466669142246246
leaf_count=48 353 351 18 30
internal_value=0 -0.00441333 -0.000151017 -0.00432743
internal_weight=0 18.1899 16.6415 12.4482
internal_count=800 447 96 78
is_linear=0
shrinkage=0.05


Tree=95
num_leaves=5
num_cat=0
split_feature=0 1 0 0
split_gain=1.65994 1.35678 0.368719 0.23367
threshold=1996.5000000000002 1.0000000180025095e-35 1915.0000000000002 1632.5000000000002
decision_type=2 2 2 2
left_child=1 2 3 -1
right_child=-2 -3 -4 -5
leaf_value=-0.003175099285983092 0.050216839305586174 -0.050211780169378523 -0.015380879506938143 0.010029021504934628
leaf_weight=6.6301668882370084 1.5176839875057329 1.4731976147741068 3.2047995626926413 6.7737925946712494
leaf_count=45 353 351 14 37
internal_value=0 -0.00422418 -0.000145078 0.0034977
internal_weight=0 18.082 16.6088 13.404
internal_count=800 447 96 82
is_linear=0
shrinkage=0.05


Tree=96
num_leaves=5
num_cat=0
split_feature=0 1 0 0
split_gain=1.57307 1.2959 0.336195 0.475169
threshold=1996.5000000000002 1.0000000180025095e-35 1891.0000000000002 1672.5000000000002
decision_type=2 2 2 2
left_child=1 2 3 -1
right_child=-2 -3 -4 -5
leaf_value=0.0039244951261596791 0.050206222438860984 -0.050201408093084966 0.012110536450023307 -0.015930431092013607
leaf_weight=7.3047585785389035 1.4439633036963631 1.4016310875304032 4.1899291276931754 5.1293018013238907
leaf_count=48 353 351 18 30
internal_value=0 -0.00403127 -0.000138487 -0.00426606
internal_weight=0 18.0256 16.624 12.4341
internal_count=800 447 96 78
is_linear=0
shrinkage=0.05


Tree=97
num_leaves=5
num_cat=0
split_feature=0 1 0 0
split_gain=1.45982 1.2002 0.350883 0.391425
threshold=1979.5000000000002 1.0000000180025095e-35 1833.0000000000002 1632.5000000000002
decision_type=2 2 2 2
left_child=1 2 3 -1
right_child=-2 -3 -4 -5
leaf_value=-0.0032124865476105091 0.042087090110023387 -0.050191150812209921 -0.011378920281426327 0.016225435984457703
leaf_weight=6.630337357521066 1.8608555498067278 1.3278903090395022 5.2298394590616217 4.250100240111351
leaf_count=45 356 350 25 24
internal_value=0 -0.00450153 -0.000735559 0.00438033
internal_weight=0 17.4382 16.1103 10.8804
internal_count=800 444 94 69
is_linear=0
shrinkage=0.05


Tree=98
num_leaves=5
num_cat=0
split_feature=0 1 0 0
split_gain=1.35438 1.14745 0.317294 0.350004
threshold=1979.5000000000002 1.0000000180025095e-35 1833.0000000000002 1632.5000000000002
decision_type=2 2 2 2
left_child=1 2 3 -1
right_child=-2 -3 -4 -5
leaf_value=-0.0030522101230127459 0.04116818712351622 -0.050181796039601913 -0.01084964313413841 0.015282086013160827
leaf_weight=6.6296026110649198 1.8086150193121273 1.2633578851819027 5.2112057358026496 4.2858818024396896
leaf_count=45 356 350 25 24
internal_value=0 -0.00429412 -0.000699303 0.00414661
internal_weight=0 17.39 16.1267 10.9155
internal_count=800 444 94 69
is_linear=0
shrinkage=0.05


Tree=99
num_leaves=5
num_cat=0
split_feature=0 0 0 0
split_gain=1.2733 2.90774 2.14379 1.59686
threshold=1891.0000000000002 1915.0000000000002 1833.0000000000002 1979.5000000000002
decision_type=2 2 2 2
left_child=2 -2 -1 -3
right_child=1 3 -4 -5
leaf_value=-0.0012178519942156053 0.097105628334680463 -0.020840330458020747 -0.064482913469388989 0.040233803899197118
leaf_weight=12.09882618696429 1.0065001728944469 2.7325846923049539 1.505685201846062 1.759354749927297
leaf_count=404 6 21 13 356
internal_value=0 0.020292 -0.00821974 0.00308053
internal_weight=0 5.49844 13.6045 4.49194
internal_count=800 383 417 377
is_linear=0
shrinkage=0.05


end of trees

feature_importances:
file_size=301
is_packed=99

parameters:
[boosting: gbdt]
[objective: binary]
[metric: binary_logloss]
[tree_learner: serial]
[device_type: cpu]
[data_sample_strategy: bagging]
[data: ]
[valid: ]
[num_iterations: 100]
[learning_rate: 0.05]
[num_leaves: 5]
[num_threads: 0]
[seed: 0]
[deterministic: 0]
[force_col_wise: 0]
[force_row_wise: 0]
[histogram_pool_size: -1]
[max_depth: -1]
[min_data_in_leaf: 20]
[min_sum_hessian_in_leaf: 0.001]
[bagging_fraction: 1]
[pos_bagging_fraction: 1]
[neg_bagging_fraction: 1]
[bagging_freq: 0]
[bagging_seed: 3]
[feature_fraction: 0.9]
[feature_fraction_bynode: 1]
[feature_fraction_seed: 2]
[extra_trees: 0]
[extra_seed: 6]
[early_stopping_round: 0]
[early_stopping_min_delta: 0]
[first_metric_only: 0]
[max_delta_step: 0]
[lambda_l1: 0]
[lambda_l2: 0]
[linear_lambda: 0]
[min_gain_to_split: 0]
[drop_rate: 0.1]
[max_drop: 50]
[skip_drop: 0.5]
[xgboost_dart_mode: 0]
[uniform_drop: 0]
[drop_seed: 4]
[top_rate: 0.2]
[other_rate: 0.1]
[min_data_per_group: 100]
[max_cat_threshold: 32]
[cat_l2: 10]
[cat_smooth: 10]
[max_cat_to_onehot: 4]
[top_k: 20]
[monotone_constraints: ]
[monotone_constraints_method: basic]
[monotone_penalty: 0]
[feature_contri: ]
[forcedsplits_filename: ]
[refit_decay_rate: 0.9]
[cegb_tradeoff: 1]
[cegb_penalty_split: 0]
[cegb_penalty_feature_lazy: ]
[cegb_penalty_feature_coupled: ]
[path_smooth: 0]
[interaction_constraints: ]
[verbosity: 1]
[saved_feature_importance_type: 0]
[use_quantized_grad: 0]
[num_grad_quant_bins: 4]
[quant_train_renew_leaf: 0]
[stochastic_rounding: 1]
[linear_tree: 0]
[max_bin: 255]
[max_bin_by_feature: ]
[min_data_in_bin: 3]
[bin_construct_sample_cnt: 200000]
[data_random_seed: 1]
[is_enable_sparse: 1]
[enable_bundle: 1]
[use_missing: 1]
[zero_as_missing: 0]
[feature_pre_filter: 1]
[pre_partition: 0]
[two_round: 0]
[header: 0]
[label_column: ]
[weight_column: ]
[group_column: ]
[ignore_column: ]
[categorical_feature: ]
[forcedbins_filename: ]
[precise_float_parser: 0]
[parser_config_file: ]
[objective_seed: 5]
[num_class: 1]
[is_unbalance: 0]
[scale_pos_weight: 1]
[sigmoid: 1]
[boost_from_average: 1]
[reg_sqrt: 0]
[alpha: 0.9]
[fair_c: 1]
[poisson_max_delta_step: 0.7]
[tweedie_variance_power: 1.5]
[lambdarank_truncation_level: 30]
[lambdarank_norm: 1]
[label_gain: ]
[lambdarank_position_bias_regularization: 0]
[eval_at: ]
[multi_error_top_k: 1]
[auc_mu_weights: ]
[num_machines: 1]
[local_listen_port: 12400]
[time_out: 120]
[machine_list_filename: ]
[machines: ]
[gpu_platform_id: -1]
[gpu_device_id: -1]
[gpu_use_dp: 0]
[num_gpu: 1]

end of parameters

pandas_categorical:[]
